digraph Tree {
node [shape=box, fontname="helvetica"] ;
edge [fontname="helvetica"] ;
0 [label="alive <= 0.5\ngini = 0.469\nsamples = 712\nvalue = [444, 268]\nclass = died"] ;
1 [label="gini = 0.0\nsamples = 444\nvalue = [444, 0]\nclass = died"] ;
0 -> 1 [labeldistance=2.5, labelangle=45, headlabel="True"] ;
2 [label="gini = 0.0\nsamples = 268\nvalue = [0, 268]\nclass = survived"] ;
0 -> 2 [labeldistance=2.5, labelangle=-45, headlabel="False"] ;
}
